-2.601256806759372764e-01,1.902197541912215240e+00,-8.191342224912981917e-01,2.376098376861391082e-01,-5.035737530824511143e-01,2.354199205420660412e+00,9.249179517920224081e-01,-3.967802349147002139e-01,-3.768285493949899423e-02,-8.376095028648149476e-01,1.236930419308425455e-01,-1.486209207868285143e+00,-5.121525288580111024e-01,-3.055097395678940675e-01,-2.952827640118936836e-01,-1.543004759683024751e+00,-1.345898596099049660e-01,1.259516754136517369e-01
3.253715422896237275e-01,7.226127773023659495e-01,4.996151094669967208e-01,-8.550874862884403349e-01,-4.947770389827095827e-01,6.296390114222599754e-01,-5.784976694896422078e-01,2.324375953494374425e+00,6.426894467140557010e-01,-8.907114764750054814e-01,3.721799954861964577e-01,-6.613630436777971910e-01,-2.422432052228038757e-01,-3.822971330189180866e-02,2.460478707462091519e-01,-5.061803031973838296e-01,-5.938697843226040662e-01,9.667008567652862761e-01
8.001709760782147463e-01,-1.828018554416938890e-01,8.348653704654839247e-01,2.015383134071796700e+00,-3.605460298306742417e-01,-3.023180374226335232e-01,-2.878145857744076053e-01,1.031033640101179039e+00,3.353381761194249022e-01,-5.450676065730863940e-01,1.223473390132987948e+00,9.659017320084664071e-01,1.843682844851211033e-01,-1.614444414223501045e+00,1.559672225846247921e-02,9.428799931105226462e-02,-5.827231176686344938e-01,-9.007526239605149199e-01
8.224405385995258166e-01,-5.192238799331431176e-01,-3.829118308155474160e-01,7.873713992652402183e-02,-1.750100246712044338e+00,-4.618136961786924455e-01,-1.955005239651112614e+00,4.356405492624923492e-02,-2.005917020931890504e-01,1.406699993419896710e+00,-4.166806385838340288e-01,-3.296085761465437081e-01,1.611194075991570163e+00,-1.154269303605619745e+00,4.911840502618658455e-01,6.691513432872853162e-01,1.989239608800790204e+00,-6.693210735862609173e-01
