1.764624327232817147e-01,2.887781243205651549e+00,-1.559615525383387213e+00,2.527411526863597713e-01,-1.085695221042065395e+00,2.882123167989510737e+00,9.404481616065798466e-01,-8.166349653783908646e-01,4.961474779845532757e-01,-9.607758775144925600e-01,1.337491419354199795e-01,-2.105751996720348629e+00,-2.530543353743797685e-01,-4.297483285755258620e-01,-3.305151513159937382e-01,-1.890056563412853885e+00,-4.607588665817722922e-04,-3.190501244644650125e-02
-3.559632207008831678e-02,3.908281978213914432e-01,7.374569494133917935e-01,-1.327545057397945705e+00,-4.111691466184877464e-01,6.900020022136108544e-01,-4.350680446782830280e-01,4.230417880713517320e+00,1.349295880569699957e+00,-6.056146684659899915e-01,2.689446333807424816e-01,-1.535460048217576645e+00,3.432587409511312915e-01,-2.958161887658355971e-01,7.571776752394805410e-01,-6.108134543849192966e-01,-6.685019213310745556e-01,8.927420936356115222e-01
1.199044431828581780e+00,-3.835701870468694596e-01,6.857720979664936323e-01,2.647999273703964374e+00,-3.343531716740401616e-01,2.093632315612972694e-01,-2.186113836027893387e-01,1.008457689176830430e+00,3.417422144638916359e-01,-6.445810621329113310e-01,1.758685588718498449e+00,1.085951130265188747e+00,1.073879043549911122e-01,-1.945379110447353455e+00,-1.784370284688272801e-01,-1.411703996193850730e-01,-8.621321450122975127e-01,-1.120160919476339334e+00
7.123322550133677211e-01,-5.284517658566511011e-01,-5.833225635201232384e-01,3.298934021832929386e-01,-2.413419661203182187e+00,-3.591316912072562983e-01,-3.201831921250509971e+00,3.429004619403129284e-01,-2.940356587029365754e-01,1.262917611360153458e+00,-6.305816602299999518e-01,-1.203752393529645692e+00,2.213797791477942312e+00,-1.475183728926596327e+00,3.248258552856541637e-01,6.166173349303186724e-01,2.743313239887422927e+00,-7.302412394109343285e-01
