1.959730866038932318e-01,2.941779921558691946e+00,-1.586707597518163260e+00,2.541283182745813773e-01,-1.156409226277675728e+00,2.937786491626944940e+00,9.764030343033534010e-01,-8.658250492417794986e-01,4.999345909303517521e-01,-9.400770337491449746e-01,1.102340184607295825e-01,-2.122106052862209769e+00,-2.091406959528420983e-01,-3.826692680707304284e-01,-2.946370019040100430e-01,-1.950355078423917643e+00,-1.001386332105625061e-02,-1.062027949600920750e-02
-5.664768499924967282e-02,3.162364924921292619e-01,7.672451055122748720e-01,-1.328447701253765878e+00,-4.780753571035499250e-01,6.767764886813242287e-01,-4.262533019919572119e-01,4.250236387755363943e+00,1.453451665793229042e+00,-5.850044431492249508e-01,3.093299513190362893e-01,-1.552502466176644447e+00,3.862084769457451716e-01,-2.463456869675533234e-01,8.403925423695187691e-01,-6.750946942971993714e-01,-6.432661916836475147e-01,9.282907520112049227e-01
1.199380602822782693e+00,-4.127551002934707336e-01,6.976301006539016303e-01,2.683825185789883161e+00,-3.738153938074491034e-01,2.489067712133520849e-01,-2.205421172713503408e-01,1.000819624421708021e+00,3.524995343399225378e-01,-6.594496758730455932e-01,1.826180940692957666e+00,1.111247806984550612e+00,1.414039036680383998e-01,-1.987654511730008400e+00,-1.655452376669807879e-01,-1.507727711797045844e-01,-9.118137793821993187e-01,-1.120058952255645002e+00
6.891384422846319469e-01,-5.152205668499311164e-01,-6.085692135747267084e-01,2.567851546220623060e-01,-2.455741486888283642e+00,-3.526232135606218177e-01,-3.257643538343980794e+00,3.257258290727585437e-01,-2.672826583103661835e-01,1.262606354520889207e+00,-5.986047390884056130e-01,-1.201969217072712093e+00,2.276099304195565498e+00,-1.494663794756317055e+00,3.158949673919046464e-01,6.097541498969754059e-01,2.870901151381602734e+00,-7.117738816472846120e-01
