1.130067873078904661e+00,-3.293521839978925114e-01,-3.479411660958633967e-01,8.065973571494832184e-01,4.717807138862473160e-01,-1.107880592196677227e+00,5.649986618365134827e-01,-1.502757114567970786e+00,-3.743157223043767079e-01,-1.300222320190216330e+00,-4.901588897203560946e-01,-1.552166689727557447e+00,1.682366397916050527e-01,8.900691980191818287e-01,1.265722500292093988e+00,-1.129421769329570280e+00,-6.022075610336016238e-01,1.449429531996452081e+00,-1.506447582072699687e+00,8.751920055526840603e-01,-3.666964826028026175e-02,1.182853465259093628e+00,-8.685320738387997119e-01,-5.146875852140618823e-01
-1.284192510967219869e+00,2.878378468775415921e+00,-4.556086559343285325e-01,-6.315386368131389316e-01,-2.162705201399904853e-01,3.762352443289853632e-01,-9.996737877510822323e-02,-2.184741753223733429e-01,-8.519983105065302986e-01,-3.226229289977519121e-01,-5.413836284438183766e-01,2.124876511173717564e+00,-1.038060220198326666e+00,-6.758005226118979358e-01,8.712229736252355972e-01,1.679600431279374417e-01,4.474623966602245262e-01,-1.355725227711034320e-01,3.399384866070250810e-01,-4.507641087754891696e-01,-1.227334015015930202e+00,-1.093896491157296369e+00,-2.591343486458956402e+00,-5.924348736765256557e-02
-7.469467022325635419e-01,-2.390024757263744082e+00,5.797807726242678594e-01,6.724414307397639234e-01,8.565606960745824061e-01,1.061328349044615982e-01,1.086898728221588284e+00,9.072655835858792761e-01,8.985268701047830486e-01,-5.373605689712221967e-01,-1.294735506891876664e+00,-2.215489965938523820e-01,4.851864226013096748e-01,3.460201770709039892e-01,2.020667213711024868e-01,1.508395724247898195e-01,4.830308254070674323e-01,3.301658972396795955e-01,-4.111495055270592558e-01,-8.606001498216589995e-01,7.087541018348297861e-01,7.104009658140497674e-01,4.132670611744153621e-01,9.303197898727955106e-01
-1.004672445889268850e+00,1.093014498042467642e+00,7.358504832366702386e-02,-4.357645044601476947e-01,3.203370389262322759e-01,-8.978312803353438731e-02,1.706420063934199538e+00,-1.015455087648172272e+00,-1.320281431503329106e+00,-5.526398635181926089e-01,-5.082937622665080479e-02,1.171281853364146475e+00,-5.839853182898294692e-01,2.856157916443785805e+00,-3.755315691834930636e-01,4.694741556709341457e-01,-8.243136091950037381e-01,-1.159596362764063304e+00,4.097907654213814310e-02,-7.527760465407022650e-02,-7.368241564424873324e-01,8.574738373290480276e-01,1.206671291083647235e+00,2.551924891126647887e-01
-9.428477217464018567e-01,-9.165981023555610507e-01,-1.725596134019613093e+00,-1.093316209671658878e+00,-1.658412690372265352e+00,5.863041350380722161e-01,2.082963214315894929e-01,-1.207805115263608231e+00,-5.504823509999666742e-01,9.683656062944832055e-01,-1.337597353922437060e+00,-5.703824793763700995e-01,-1.264756436617998636e+00,2.572216371115612077e-01,-1.141084256141740916e+00,-1.226737844362876251e+00,-4.709203612413755402e-01,9.345958181361596617e-01,1.817675704987525842e-02,-1.231175169854923812e+00,-1.460746448994107105e+00,-3.188073878844430720e+00,-1.265461774742338674e+00,-1.356796553915194492e+00
7.121293472806315972e-01,1.744377049899085819e+00,4.575306531743860705e-01,1.334212237915934907e+00,-2.785828451127214667e-01,7.988976812238336722e-02,-4.157507420491274308e-01,-5.229844744100465848e-01,7.498923425625153572e-01,1.459914684059695766e-01,-7.794833558256051287e-01,-1.152800528088163912e+00,-3.846235739260414066e-01,1.086533667240845880e+00,6.491078004824871739e-01,9.772407891606697816e-02,-6.466702996971233075e-01,-1.378368150119610169e-01,-2.059445990920599490e-01,-6.873426496334802960e-02,1.221553250026323090e+00,2.247860710364059322e+00,2.565634790994856251e-01,5.048385136987022515e-01
5.381648962419766091e-01,1.434502664309343256e+00,6.572526905528903729e-01,-3.738327515906148535e-01,-4.631287769630748063e-01,4.407208425290625176e-01,4.531238648466128227e-01,1.573036376760259758e+00,-3.688039146513716893e-01,6.144546997685093048e-01,-3.687519427603129785e-01,-1.303537070157759770e+00,-2.438750523054837305e-01,-1.421923759131076270e+00,3.769669029166652363e-01,6.569262566840305961e-02,9.837061757340683776e-01,1.248128750268210768e-01,1.295101163830397528e+00,-3.157009203786768747e+00,3.530234136816903234e-01,-2.111540701616696492e-01,1.753427695220874660e-01,-4.844668531985699134e-01
-2.075086266677589608e-01,-2.577224053043303709e+00,8.727631730587328551e-01,-5.303950520073826835e-01,-9.105927119010851500e-01,-1.823049447036994841e-01,-6.095162116370572702e-01,3.529094554256887228e+00,-2.871340509246297357e-01,-1.548586168484870740e+00,7.659986815834601837e-02,8.127836657563857203e-01,9.533022251608190833e-01,4.900563502943798277e-01,-7.922929218451226774e-01,-3.049597192261568335e-01,-6.701518941600630441e-01,1.674404819894988738e-01,1.043211161890544636e+00,7.888368895519218826e-01,-7.279796178058922651e-01,-8.992186127070554702e-03,-4.393031663588832791e-01,-5.608653255005587868e-01
3.839570592286087325e-01,2.313985648310254106e+00,-1.154952897502943276e-01,1.217580019018961179e+00,-5.393962875793192335e-01,-8.133045416147489659e-01,-1.363439954278596655e+00,1.289329911018614494e+00,-6.934895095036361923e-01,-4.000808798148616785e-01,9.166151375731100837e-01,6.205825764912396014e-01,5.058176202921105258e-01,9.307943437633111605e-01,-1.060779453978987652e+00,1.348183355696249038e-02,-1.041634454419817057e+00,-2.451132491049361484e-01,-1.677473397694276558e-01,-8.575155801163003577e-01,9.054170528440598220e-01,-1.487789299396250930e+00,1.323935254688006546e+00,4.360142793988467866e-03
1.245608432102898400e+00,-1.095945318414446756e+00,-2.687798152624746306e-01,1.491821314928193143e+00,-9.656664998487465845e-02,-1.373240336477950796e-01,-2.480272668856202956e-01,-8.870896772645707751e-01,3.557345782898112541e-01,1.336547822121374185e-01,-9.583585651487577239e-01,-3.506334011452668653e-01,-1.510429528112891884e+00,-1.300746181134364354e+00,1.600562901943150873e+00,3.273525834857035077e-01,-2.435855618546507007e+00,-1.293063298075697753e+00,-3.245932987473617443e-02,6.819656620182374951e-01,-3.382302837866264095e-02,5.198413288684027300e-01,-1.238157220555978488e-01,-1.540327367659436009e+00
9.730273181419000217e-01,7.798879825297763135e-01,-4.305118479927460551e-01,8.989289799839418338e-01,3.915213408796166528e-01,-1.264260993819442680e-01,-9.770919692093797959e-01,-1.256214563224089809e-01,2.650242134359093726e-01,1.829243932753615159e-02,1.555513503744666348e+00,-2.189647813161456347e-01,-5.230705829132946683e-01,2.401075626826746134e+00,-1.580965291030397957e+00,1.108664393507523105e+00,-9.146239513330163551e-02,8.344817581181548372e-01,5.292741800768206994e-01,-3.370790257582143012e-01,2.252317766036277258e-01,-1.780176389074909604e+00,-5.089409886249761650e-01,5.713716411760806357e-01
1.097759794014758095e+00,-2.555568366039204342e+00,-2.129788199098836543e-01,6.531382277181245755e-01,-3.274884321776728308e-02,7.093942459645937726e-01,-2.185510539893315285e-01,-1.922956451489821639e+00,-1.322688001652455148e+00,2.360056187301049213e-01,-4.914722220866347135e-01,-4.278944608918645587e-01,-3.527569525036335363e-01,6.817827368488476036e-01,3.409553824399113586e-01,2.483719800257553345e-01,8.734822907686659033e-01,-6.307996045878465630e-01,7.718896105255730611e-02,-1.796240998257911059e+00,1.445918590107752588e-01,7.435938708170048983e-01,-6.475798769132407040e-01,-6.409509823324689437e-01
2.178043899685732754e+00,2.301961646338387679e-01,9.127361581176379746e-01,2.895331840475656171e-01,2.834352594332010256e-01,2.092692191456116735e+00,4.274134653027067410e-01,3.940531738340630752e-01,4.091142984645926295e-02,2.807111913962186400e-01,-8.150199035349637855e-01,-8.490135158217718137e-02,1.299114664124714769e-01,-8.121387371593464799e-01,-8.120704979744980401e-01,1.015394463397993219e+00,6.904574247988835012e-01,-2.694260228224173645e-02,7.683908741873047843e-01,1.069113650628891854e+00,7.639940384330301537e-01,1.063507256518549937e+00,3.847752939837019714e-01,4.249931465108943152e-01
-7.597592255420086982e-01,-1.233550588887770472e+00,-1.207946733519641880e+00,1.295670804258375997e+00,2.908387260904460536e+00,4.808438681078214955e-02,-8.551009758398187000e-01,-1.067618011012066548e+00,-7.872016037431840418e-01,7.305616464773675434e-01,6.904122050828214174e-01,1.020789923257537334e-02,2.595728403444666488e-02,-1.895311007500647182e+00,-3.692389000344717953e-01,2.387322571917047664e+00,-1.044064927494607220e+00,6.498378183866473368e-01,-1.346227933505644847e-01,-1.665145123839828489e+00,-1.063823299148107138e+00,4.864562498494125475e-01,1.552099733185070773e+00,1.068635853299432004e+00
-5.214795832192125474e-02,-9.646824239701279335e-01,-5.976042202648398360e-01,-8.499360813470302478e-01,1.103041837271064640e+00,1.304967973494936817e-01,-1.850926358691836970e+00,9.034214174389773588e-02,-1.216672369504774753e+00,-1.434130668071921244e-01,7.889829645386270407e-01,3.840380095353597145e-01,8.420639523429399587e-01,1.265701674683065159e+00,-2.759452866171207587e-03,-3.864405674097800003e-01,1.267471292684541284e+00,1.309627685406059339e+00,-4.749700842012646307e-01,-1.269916690196343678e+00,7.638864399077718303e-01,1.402538117760367964e+00,3.404070213171773163e-01,-4.812675442826394034e-01
2.603891321215689558e+00,-1.481780975391040034e+00,-1.121887216023750855e-01,-5.329823556962695053e-01,-1.331007894853580842e+00,1.270069700968185777e-01,-3.326003442456670900e-01,-1.259744500787677746e+00,-3.238980358110845614e-01,-8.457672643090222153e-02,1.272682433433963700e+00,1.185584175137829765e+00,-4.779401459625945980e-01,-8.410076658294787233e-01,-7.270915272691790276e-01,1.637035644292538991e-02,3.935669382102224834e-01,8.409009736548070935e-01,-3.318424423664245726e-01,7.428574571933614923e-01,-5.774960768958379287e-01,-8.550240177426279148e-03,1.405890815530696537e-02,1.533428076975081655e+00
-3.375319588841720897e-01,1.845215551921561281e-01,-2.368083335000306655e-01,-2.282060280594129242e-01,-6.894158028313126518e-01,1.964327915977617245e-01,-1.211542174971646096e-01,-1.822706907132979337e-01,-5.825157850804091320e-01,1.096314544139980418e+00,-1.405742630888917044e-01,-1.399163052583416222e+00,7.713229468104875197e-01,-1.088337247562189747e+00,-1.915946829617473923e-01,9.983069099894135157e-01,3.064279147675521564e-01,-7.476556241842945427e-01,-1.378359576696462696e+00,2.815741063793693044e+00,5.457898664900545649e-01,-1.490483979416366900e+00,-2.672735470467542673e-01,1.652437892333447067e-01
8.566489633316743957e-01,-6.917223806484228410e-01,7.080794134068922885e-01,-5.356923132809778831e-01,6.745430246937680341e-01,-9.543790335454249707e-01,2.612409033818506865e-01,1.064350012344662755e+00,-8.851997470783591337e-01,-9.432682308265629700e-01,-2.624153156112140062e-01,-1.150065970556838069e-01,3.229856608268769635e-01,-2.111309479206945117e+00,3.376121836667145826e-01,8.760128664224955397e-01,-9.520527213684985834e-02,-2.243209398781538244e+00,-3.532971470245845347e-01,-8.227383943183602666e-01,-1.539819090843868310e-01,2.508679615271985686e+00,2.036011899726127006e-01,-2.479831493539229048e-01
